{"layers": [8, 20, 1], "activations": ["tanh", "linear"], "weights": [[[0.3326649032196631, 0.6570157479947066, 0.08625897917494596, -0.6158621050120605, 0.028570412107476344, 1.2304718788637963, -0.6026143098651319, -0.12035046999384033, 0.1935256211122852, -0.3226578160079077, 0.4500834762098538, -0.6220751295624668, 0.5164142946450662, -0.5828640528890976, 0.7337927294715444, 0.03482514429266317, -0.25873215047062265, -0.18959221823076397, -0.499771983522833, 0.7528161789279716], [-0.12488297497819678, 0.36195532995579055, 0.03275570578928961, 0.27693281469497477, -0.07846681147453335, 0.27397885666843186, -0.02188892392900352, -0.9577174200413829, 0.018999973836475312, -0.21681039053091297, -0.04988307455573229, -0.19650642886608966, -0.3333069702553955, -0.046606370343158156, -0.227922733596023, -0.23460058306880263, -0.7619964463211972, -0.0740259652554142, -0.1781398432082372, 0.31067919340195804], [0.2973841714384536, -0.5367501325824595, -0.3238338700886672, -0.7849688292557767, -0.20512100187045917, 0.10728575346209195, 0.2855926036994253, -0.3519711026556134, -0.49666598919917376, 0.34261206954078743, 0.6586920715159498, -0.12026795380381813, 1.1820901600453873, -0.5922263984588603, 0.36313556193995855, -0.04826532991206934, 0.04858585157626666, -1.0014397730111348, -0.4500050137642552, -0.7507526317861677], [0.07023178092021551, 0.430391608979276, 0.6712476480364881, -0.28509811837933746, 0.17496821379570643, -0.683545035872139, 0.19288290505865396, 0.3978819949864838, -0.8009129660926085, 0.22641106169904665, 0.33321612318317956, 0.04226109027386669, 0.0750335308622125, -0.5347430952289504, 0.45518465448293055, -0.7423256575606827, 0.6538116029558054, 0.00977774880293081, 0.45973054742051944, -0.017013451859866326], [-0.5325633689289604, 0.1415779416936454, 1.0531992830579278, 0.1476962533886151, -0.19746226223397653, -0.22382954781202147, 0.09789593732227742, -0.21209235626141323, -0.052053559109947814, -0.06866508501031558, -0.17129696513159057, -0.15509976689281973, -0.06321433343535467, -0.055868509011005076, -0.09895050974598234, -0.10448919797606984, -0.5372843553522229, -0.01714440414675073, -0.023419312913694937, -0.05221266756004661], [0.6935627320344251, -3.3504423331241227, -1.0600537619213728, 0.16768328364038632, -0.5437287698994174, 0.07159234660941215, -0.43495623311980236, -0.2638106516167195, 0.0937849984489852, -0.046170090174914934, -2.7305274227250993, 0.0357197333916907, 0.10108953676203603, 0.21011994297850278, -0.45476917456954774, -0.11444582232761548, -0.99866972858239, 0.6401284374243493, 1.2270231843718578, -0.2256638244940801], [0.458531365571264, -1.1008001353493377, 0.08562294988177277, 1.2399548623407075, 0.5745210844616014, -0.20421862686547046, 1.1712807058664483, 0.25439544493266375, -2.0129457918830624, 0.47328465557991706, -0.31978290745929916, 0.8457939821196782, 0.35739995505993055, 1.0837353347627794, 0.4194966453953129, -0.7896056545395824, -0.4859706455745217, 0.7867586517267265, -0.1335153692170771, -0.8573089776739796], [-0.3552592458400572, -0.8790463206682464, -0.0713975563688871, -0.096787789042778, 0.46160684327893114, -0.2616447110555937, 0.8326772548391611, 0.4940903788880525, 1.2304110542205149, -0.13557407763940363, -0.32237206956797254, 0.7285780928492726, 0.026778284281142564, 0.23120046562181892, 0.10135457201688937, 0.45267408294021094, 0.5949328359330206, 0.9012031980450894, -0.14311067295583962, 0.5982842435618234]], [[0.1238674907167331], [1.4251407777324996], [0.12114264700230912], [-0.26063448297969466], [-0.38308526504093604], [-0.31917029455334445], [-0.8140320505931038], [0.2607918166616144], [1.0405762276697004], [1.0718424634163521], [1.0096986180860088], [-0.4095067339632412], [0.2769467228820389], [0.6350939029905294], [-0.6222215788033374], [-0.7281531448767675], [0.06900585819393937], [0.4905607900357053], [-0.6369997513552735], [-0.4803708087436408]]], "biases": [[[0.09312905865853069, -1.1534137928002097, -0.27242790036844045, 0.03884007560133734, 0.1799247195475533, -0.5533550674806376, -0.2609167286276253, 0.3295598950645626, -1.1446753434930415, 1.015558925955919, -0.44423365712022217, 0.5187214116535435, -0.4965657006126856, -0.2262342955976104, -0.23727810408114014, -0.5485960005710827, -0.05176926128777189, -0.15930693760485817, 0.09983606828537356, 0.32969380047688773]], [[0.553260499987583]]], "cost": "mse", "optimizer": "sgd", "learning_rate": 0.01, "initialization": "he"}