{"layers": [4, 16, 8, 2], "activations": ["relu", "relu", "sigmoid"], "weights": [[[0.2937622371953991, 0.8317262564311494, 0.04946344825585877, -0.6345874478174606, -0.34580927813228046, 1.1359764135641464, 0.25739310627223966, -0.31627769817055706, 0.0618363729653982, 0.8325293881327838, -0.08741362707093334, 0.10527743018439391, 0.23013207432786434, 0.23372135258041019, 0.1214200342698733, -0.32623053987057765], [0.7864748654328125, 0.3876662825683942, 0.19569107731793328, 0.2969160556234178, 0.03409027499425621, 0.11798396091814954, 0.42363521006966276, 0.8113977186181646, -0.8828605229440305, -0.5960339181928636, 0.05893419181261435, 0.5173791544283788, 0.5922653315351979, -0.38397043866354846, 0.302727335677943, 1.675279293312263], [0.6242634160611951, -0.649291609763947, -0.818153080005374, -0.4948394701013567, 0.00929979614928892, 0.8207105573447309, -0.16857682193104553, 0.5903013116352952, 0.9302893527702664, 1.0713244694347102, 0.3594589786836628, -0.8902450362837684, -0.3747863564913885, 0.9020333133402479, -0.5217471379008031, -0.7299382996880059], [-0.386951638961585, 0.012605273001878674, -0.034648429452683274, -1.1733400876265792, 0.25003990943571425, 0.3802729022706228, 0.3692762190543101, -0.5995096360691655, 0.7155740208104899, 0.26622357969536986, -0.43487503169960334, -0.15552002934740913, 0.2912433090336881, -0.6451042418557, 1.261474451175611, -0.4173479391868543]], [[0.1421709660600597, 0.014629052013940136, 0.2040113508762226, 0.5255177143194268, 0.08850719456050575, -0.0992704494501711, -0.3696637573571434, 0.21755669584489534], [-0.08638736723889366, 0.13196009285010563, 0.12104885391301798, 0.17763734932139524, 0.14176371666103288, -0.14233522189614112, -0.01239546209170386, -0.2783022098090057], [0.5999556590984958, 0.14177100015140387, -0.35030455762105867, -0.39088024879050215, 0.10639928776109371, -0.2643327631892115, -0.2931144193923437, -0.21536313805691062], [-0.19867547639812638, -0.14667541822186178, -0.515054101295851, -0.44484011494449605, 0.6139011226149946, -0.30181506725116036, -0.08621286533929502, -0.0719851340674895], [-0.21657859704195506, -0.2804158267802129, -0.1918757951385883, 0.10042840241960477, 0.041914035700676804, 0.02360774518549392, 0.09810749347166119, 0.06902966060564819], [0.5575558651622389, 0.8302190058353884, -0.007254133480122734, 0.11465420307063633, -0.2496606624344151, -0.2149473808819528, -0.19228306999015482, 0.10358093229069265], [-0.2367470797077077, 0.1498952917606056, 0.5553785680021398, -0.4801543465725921, -0.41956643148877604, -0.1507713246960499, 0.3170768339272063, 0.014745177460364984], [-0.7844573002576901, -0.04488839112700476, 0.09608278794670559, 0.05823897006469271, 0.10415756490392825, -0.043595338997315436, -0.3373485172233457, -0.06776712140474309], [0.6854151383814742, 0.42913779742922387, 0.1999212525364535, 0.1524300320715458, 0.13867906896177826, 0.030878211146567493, -0.08061938772561479, 0.850215583235859], [0.5907466080615741, 0.1891187375113298, -0.17759075780662248, -0.4269516883314506, -0.21569625016816596, -0.012434037444991478, 0.12295583489954176, 0.475395668137938], [-0.0671897376983897, 0.047946271219130115, 0.1635876721102711, 0.18003392390774475, -0.1362344951467883, 0.5339110143263108, 0.3366699220546448, -0.1037202334538334], [-0.17035997796865002, -0.1363400027285347, -0.3537762357865367, 0.027222619466596102, 0.29214539072181284, -0.31169768403033016, -0.22854318092411735, 0.34730854202299205], [0.2836784539115334, 0.2413281816248729, 0.08612687653831642, -0.11945776380925663, 0.13416867042934924, 0.03563558095440434, -0.0714421697317776, 0.4582471770669922], [-0.06197209006597188, -0.3005003847029831, -0.2845714276698247, 0.016391859532344167, -0.18313952033884023, -0.0035465101166254776, 0.03239545070958026, 0.21233794485033458], [-0.08502304046015052, 0.32537268957685844, -0.07539331188223636, -0.2467461425585237, -0.36442505512589557, 0.35790685951128126, -0.17943950672738973, -0.490399920422392], [-0.03473160355547563, -0.16043171559829378, -0.29449052498025113, 0.12361210368860488, 1.2323402021349898, -0.3379039598811087, 0.1721856995352083, -0.19503797413318197]], [[-0.7846317720861483, 0.5352833659830559], [-0.5043895778874954, 0.819169899982963], [0.4490860168881029, -0.15432060344562373], [0.41042776552088295, -0.06252850392124713], [0.8977005898451015, -0.9019095195806853], [0.2915436671846523, -0.23073113604679207], [0.5379018263825859, -0.7112143682941032], [-0.8045782911136471, 0.675061769927684]]], "biases": [[[0.012258637084791588, 0.024899268356353657, -0.025071672661012245, 0.08127263623076975, -0.08182263055910996, 0.20291678956111575, -0.06449975682960193, 0.007673672941458959, 0.2438811345428968, 0.22041269930350732, -0.05187506124095759, 0.015712134882498757, 0.006442321952461641, -0.03595330482375321, -0.07329007815686846, 0.32531331356942306]], [[0.16972846143691292, 0.27764955294900884, -0.12156748107349177, -0.029662888141825355, 0.2992321337943648, -0.09809184147567475, -0.012737356946702272, 0.20962131593498626]], [[0.5106160502221426, -0.42875378444647366]]], "cost": "bce", "optimizer": "sgd", "learning_rate": 0.001, "initialization": "xavier"}