{"layers": [8, 20, 1], "activations": ["tanh", "linear"], "weights": [[[0.004379042349691122, 0.517329500828143, 0.05241789062769476, 0.8084239938641815, 0.30289877936129456, -0.03579111835861205, -0.049869096439174504, 0.20035106081961696, 0.27033061375168765, 0.33684470305122677, -0.33255973085472174, 0.37140677835039476, -0.19384145203921072, -0.5902146935112694, -0.6199322845353196, -0.30697682730712633, 0.18960496870506494, -0.6265830400699962, 0.8598572887470068, 0.024710998064095536], [0.20371773541088875, -1.0099173933657926, 0.10463088433357698, 0.1685454215072301, 0.04453519530009926, -0.015415802385141505, 0.3256148312925457, -0.3598341393773968, -0.2442658974363025, 0.6156708178955761, -0.31454045849478784, -0.05322052052443822, 0.05730984710191774, -0.01787559295013345, -0.2740286369069659, -0.22931971318342775, 0.8529737732189214, 0.5511711863363944, 0.354159137663003, -0.21145230245692098], [-0.32623151639483483, 0.04138256613958308, -1.2688198853704382, -0.2264028712783015, -0.5540311874094708, 0.1990920437191592, 0.5221301793301919, -0.18516687283049155, -0.8628852884762377, 0.21102347496091226, -0.5528065840500886, -0.12674123510606583, 0.49708651463995884, 0.548466958673564, 0.20447430783115242, 0.3897558752057628, 0.36510333653582394, -0.02441341015558248, -0.74716237953214, 0.45207153453595506], [0.6060620568454448, 0.5064336688020439, 0.7883595175260354, -0.2559856958804964, -0.3020227094183348, 0.37444927256799193, -0.08519573872020861, 0.1934882481837235, 0.11499577244768563, 1.0394945714430528, -0.24364806492176577, 1.0767280152358687, -0.5023080793439431, 0.3541471020839121, -0.18054103434732935, 0.1347403095843019, -0.11246060280700672, -0.2762834701356507, 0.24227483981962697, -0.009785592242929436], [0.469158975586206, -0.5843328702759305, 0.1875417987335872, -0.3549241780887367, -0.04546668885016719, -0.09443870715302075, -0.34529595826855, 0.35202469136583536, -0.5253445843247782, 0.3780492108364266, -0.7384282717015596, -0.019151583089682858, 0.2808144187535148, -0.05234417547188737, -0.07235471459228314, -0.1773347106318954, 0.50659997434365, 0.34184875931916864, -0.0019205398310900039, -0.3951192325421882], [-0.053475876130724284, -0.24406998137871833, 1.1807288927703172, -0.7303056377302108, 0.21968335446329437, -1.3141312768361268, -0.5507482506053524, 0.7407557574022958, 0.3290636322040916, -0.3253978703520902, 0.39812838699055286, 0.24082401245225069, 0.6669269790488785, 0.3263099682268437, 3.8908655848983864, 0.6867952606063973, 0.31451094889086806, 0.4684534861308502, -0.68039462520452, -0.7015556051063899], [-0.8419968360622802, -0.04045530781135594, 0.16580576191227558, 0.1603452197553109, -1.4736245617198827, 0.32915945581415557, 0.07315953655445058, 0.36170358087700866, 0.5250305479337181, -0.33751997846530146, -0.05940385416377663, -0.5937548922278146, 0.4228344882272398, -1.034911876521933, 0.9195972159963385, 0.49857393642913606, 0.35616232424360944, -0.7758256032174807, -0.2775398852130647, -1.5589640208168412], [-0.6920700803533923, -0.19426031176980332, 0.05517946809425217, 0.17798285199749006, 1.5481819109540704, -1.459057616461356, 0.08864592724582183, 0.4138521985742761, 0.23714954443638991, -0.6430607807908348, -0.06875356923247024, -0.6095427882663361, 0.7140625258875869, 1.2500361270828548, 0.8317388300171585, -0.7164805174186353, 0.11027752408803547, -0.21515786805617218, 0.058962324557151155, 0.352966961372789]], [[0.6320130744690637], [0.12676203265647393], [-0.7135970988896511], [0.5721761248855701], [1.2334402139139549], [1.0893906110012417], [-0.5754864072687664], [-0.41887017781831126], [0.4678978882057554], [-0.047311459549413314], [-0.2322871177909882], [0.28465128805981993], [0.590020368332964], [0.4788111031491051], [-1.836961538965274], [0.6465197005976527], [-0.2776319826711989], [0.25734006792154546], [-0.3350086762078842], [-0.4821064334155668]]], "biases": [[[-0.44864175381468774, 0.0768928949901337, 0.9290506123561123, 0.5402030333520756, -1.2068864221575681, 1.118630271035781, -0.041409515789134245, 0.03904612573073968, 0.33315122702893263, -0.09371200016398444, 0.13146704660321223, -0.0010583740500138088, -0.31751116403787943, -0.34867985845719685, 1.0826817116568705, -0.2267835424082671, -0.016692411821817424, 0.022342707994398418, -0.5181856267332746, 0.06510781705954653]], [[1.3566699153424036]]], "cost": "mse", "optimizer": "sgd", "learning_rate": 0.01, "initialization": "he"}