{"layers": [4, 10, 10, 1], "activations": ["relu", "relu", "relu", "sigmoid"], "weights": [[[-1.1131637690562068, 0.7169756327527738, -0.43766654012943895, 0.740894155294796, -0.25239934073712555, 0.4042549123615956, -0.7207125291212202, -0.51465626400009, -0.6175839808856957, 0.5561104678112921], [0.14951746328845836, -0.9081356587363968, 0.24993819879661106, 0.6943791411781424, 0.1555127212930222, -0.6809102346699356, -0.259489855440214, -0.47443369289224346, 0.10225200561417226, -0.6205632535834044], [-0.9823201909988379, -0.3711520621345579, -0.23969587042573728, -0.3727834436645837, 0.29774551590873655, -0.738122976313839, -0.5217032693109799, 0.3385150874945734, -0.27509174205874054, 0.14983337459405038], [-0.8439251896746646, -0.0961672580612503, -0.33560319374622843, 0.23752980448240077, 0.14238669301912676, 0.5634090828328295, 0.23519021411014285, 0.27233243902334525, 0.13202303656958214, 0.9168258316838975]], [[-0.03533832236654214, 0.12415724054806314, 1.3101518606313884, -0.23277177365449106, -0.1791823428498143, -0.4143502344031478, 0.17659249374156316, 0.4475666801683572, -0.4543838235839482, 0.10250855139325346], [-0.36564480633332114, 0.17959941393690979, -0.4351681263455886, -0.235372079684028, -0.23096808071917999, -0.2869178512434337, -0.04144071785234912, -0.280341829193852, 0.35953824952111063, 0.24059085991415632], [-0.07775575551289683, -0.22451868305812167, 0.45496773938861523, -0.42618037885959914, 0.34029818815636603, 0.044726318709147714, -0.020716421671477244, -0.1402545698076954, 0.12731957450773898, -0.41644938339046916], [-0.2159444509068412, -0.4004084347527542, 0.7094078638107792, -0.01947580038477127, -0.5852608716710238, 0.30706545080691133, 0.027698864895266264, -0.06898794239234414, 0.044909513547290926, 0.35986894805846686], [0.33501489489739184, 0.16960404737694326, 0.5275012547540312, -0.4778052253604572, 0.5492178239979327, 0.21312589398002418, -0.3413031192419771, 0.32478476198982825, 0.3689953525859687, 0.5209815411754282], [-0.7243295945425338, -0.10054587899842121, -0.10716598356419225, 0.30115189006236676, -0.12595438411583976, 0.14190218086103534, -0.3735130090739506, 0.0340194527599804, 0.5035735967207399, -0.30256839758517573], [-0.16907397666395485, -0.1981990963419394, 0.26860392511937264, -0.5681540498176091, 0.2881796827269474, 0.0608005195366445, -0.49083315883558465, 0.14771565682654667, 0.3242837904780724, -0.237786177109117], [-0.13316750066182448, -0.16285524845609967, -0.2507612473442506, 0.5426721773659653, 0.002760366256084014, 0.09903348977606274, -0.5216315864241736, 0.31712610314527123, 0.20913177856059437, 0.39209597527056567], [0.22215961381642754, 0.12450590914117425, 0.3487924801266289, 0.5239718252051794, 0.04832286522980372, -0.034056567785782955, 0.24751816438038665, -0.2654770132255973, 0.18723028388675383, -0.06327242385839062], [0.22890738234489735, 0.11611310002080467, -0.8769172368720732, -0.5825871645896918, -0.27988420572110567, 0.3046715998316966, -0.1403298172881702, -0.23801206392381846, 1.0172709099191446, 0.8379550811170123]], [[-0.3537119621152754], [0.19846764427504354], [-1.3650166982359344], [0.03397045828993804], [0.07383108981982495], [0.09614474466653554], [-0.14946289666574017], [-0.24184383709522125], [1.2963850652651232], [0.7520867018006466]]], "biases": [[[0.265504031597013, 0.11547925311197528, 0.13491186144950457, 0.12243769241291451, 0.18870164557647076, 0.1063194836745486, 0.07748182482026998, 0.07763316981064818, 0.07797876941781189, 0.4986300784312451]], [[-0.09084479013266118, -0.014976744014827606, 0.2774620370762596, 0.0005881242226306358, -0.022388345302673987, -0.044533884763455704, 0.03464886991838169, 0.030705897610984606, 0.4867924887865893, 0.13388698918442188]], [[0.3028951872928713]]], "cost": "bce", "optimizer": "sgd", "learning_rate": 0.1, "initialization": "xavier"}